0,515.0,2.0,-14.70371572550009
1,515.0,6.0,-15.021471504669616
2,515.0,12.0,-5.6176753088048885
3,515.0,13.0,4.856907184504502
4,515.0,14.0,-10.640127065086764
5,515.0,15.0,1.4859802089336531
6,515.0,17.0,-16.103429846124747
7,515.0,19.0,-23.740396146621947
8,515.0,24.0,-24.345427863238154
9,515.0,28.0,-13.29737666039988
10,516.0,2.0,-13.725235002519362
11,516.0,6.0,-12.403997617930532
12,516.0,12.0,-1.2503049417842433
13,516.0,13.0,8.481767703513905
14,516.0,14.0,-9.577793980165199
15,516.0,15.0,5.477338484460926
16,516.0,17.0,-1.27025051661561
17,516.0,19.0,-23.519120665850487
18,516.0,24.0,-23.961079053727055
19,516.0,28.0,-13.58292454489304
20,517.0,2.0,-16.272641394632476
21,517.0,6.0,-10.765145279484138
22,517.0,12.0,-11.811405871206707
23,517.0,13.0,11.346687715927393
24,517.0,14.0,-8.839932010497538
25,517.0,15.0,2.7548305711685286
26,517.0,24.0,-25.2986378817736
27,517.0,28.0,-11.146779783151336
28,518.0,2.0,-14.75400594391133
29,518.0,6.0,-11.606333888416149
30,518.0,12.0,-11.141612300604919
31,518.0,13.0,-3.8266943442200203
32,518.0,14.0,9.676927229649321
33,518.0,15.0,3.0141172438445043
34,518.0,24.0,-24.89226314848947
35,518.0,28.0,6.530136322808823
36,519.0,2.0,-14.837676358611496
37,519.0,6.0,-10.765366885162784
38,519.0,12.0,-2.196334890807183
39,519.0,13.0,6.199882504265954
40,519.0,14.0,3.155577258788574
41,519.0,15.0,2.9105168564030914
42,519.0,24.0,-24.844804482171295
43,519.0,28.0,6.908429701295176
44,520.0,2.0,-15.112663143057523
45,520.0,6.0,-8.757940795162284
46,520.0,12.0,2.2879765728671906
47,520.0,14.0,3.2929313241756595
48,520.0,15.0,-0.29867245713666307
49,520.0,24.0,-24.840293056005482
50,521.0,2.0,-14.91115524862848
51,521.0,6.0,-8.877364230573342
52,521.0,12.0,2.9389197385732344
53,521.0,13.0,12.962082233201293
54,521.0,14.0,2.3060595180436985
55,521.0,15.0,1.9801526826888716
56,521.0,19.0,23.944179225472652
57,521.0,24.0,-24.100045540018815
58,521.0,28.0,17.376025572363076
59,522.0,2.0,-19.033640259691424
60,522.0,6.0,-8.891135273985945
61,522.0,12.0,-1.5752705406421594
62,522.0,14.0,2.2362722108204447
63,522.0,15.0,3.188737264047098
64,522.0,19.0,-19.620431243168234
65,522.0,24.0,-22.73852622812323
66,523.0,2.0,-19.12465255467576
67,523.0,6.0,-9.844747764792393
68,523.0,12.0,1.7577118380450818
69,523.0,14.0,9.567671502261716
70,523.0,15.0,4.017482669759571
71,523.0,17.0,-5.874731140604095
72,523.0,19.0,-20.419832861785537
73,523.0,24.0,-10.587946186596
74,523.0,28.0,17.300766356819707
75,524.0,2.0,-15.45489473066044
76,524.0,6.0,-9.002394116752985
77,524.0,12.0,-3.108383573311369
78,524.0,15.0,3.2487555999481526
79,524.0,17.0,-6.486099679558682
80,524.0,19.0,-23.664977036471303
81,524.0,24.0,-11.573460093845874
82,524.0,28.0,2.7370366083271067
83,525.0,2.0,-16.006001321310663
84,525.0,6.0,-9.150107839665015
85,525.0,12.0,-7.42709009355721
86,525.0,17.0,-12.818239923145342
87,525.0,19.0,-23.66917727698089
88,525.0,24.0,-10.358038457946408
89,525.0,28.0,-5.174640173564075
90,526.0,2.0,-16.300014286466677
91,526.0,6.0,-6.939942260951791
92,526.0,12.0,-6.7863730325492995
93,526.0,14.0,7.417843048548178
94,526.0,17.0,-13.970732147705045
95,526.0,19.0,-23.84856292905788
96,526.0,24.0,-10.252209052256966
97,526.0,28.0,-4.053848088138897
98,527.0,2.0,-14.301269155308004
99,527.0,6.0,-8.88525456478304
100,527.0,12.0,-5.042340805478308
101,527.0,14.0,-1.3562071811197371
102,527.0,17.0,-14.355029174566347
103,527.0,19.0,-20.479182984511663
104,527.0,24.0,-7.762059139248706
105,527.0,28.0,-0.8132406091895804
106,528.0,2.0,9.76549607714411
107,528.0,6.0,-9.72392781530245
108,528.0,12.0,-3.863232638582493
109,528.0,14.0,5.068820461127555
110,528.0,17.0,-17.098165351946328
111,528.0,19.0,-19.24884234880704
112,528.0,24.0,-22.53068653717526
113,528.0,28.0,0.5501608364747572
114,529.0,2.0,2.0232997696238604
115,529.0,6.0,-12.121147665889195
116,529.0,12.0,-11.424310382087521
117,529.0,14.0,6.847740630373094
118,529.0,17.0,-15.44705148107541
119,529.0,19.0,-20.397445810638125
120,529.0,24.0,-24.235949799429655
121,529.0,28.0,-1.91258193625257
122,530.0,2.0,2.223767439245134
123,530.0,6.0,-20.952400452511032
124,530.0,12.0,-11.664161258848985
125,530.0,17.0,-13.698652786413126
126,530.0,19.0,-23.20048162363009
127,530.0,24.0,-24.16552907435963
128,530.0,28.0,-1.91258193625257
129,531.0,6.0,-23.448304005122345
130,531.0,12.0,-12.635926050650468
131,531.0,13.0,57.370049960614736
132,531.0,17.0,-17.207886197199304
133,531.0,19.0,-21.426620725296104
134,531.0,24.0,-23.577359766489565
135,531.0,28.0,-1.5242479250830683
136,532.0,6.0,-23.255195022959644
137,532.0,12.0,-12.159159573772914
138,532.0,15.0,1.34931228916397
139,532.0,17.0,-17.612034897856248
140,532.0,19.0,-22.84585421633478
141,532.0,24.0,-23.36096127206099
142,532.0,28.0,-0.5595757079578604
143,533.0,6.0,-23.05127251515969
144,533.0,12.0,-11.130136001429415
145,533.0,13.0,22.35523595654885
146,533.0,15.0,-6.75465873412844
147,533.0,17.0,-17.279658471832562
148,533.0,19.0,-21.92973669417435
149,533.0,24.0,-23.338334545085726
150,533.0,28.0,-11.504165277613977
151,534.0,6.0,-22.6871498755633
152,534.0,12.0,-11.228599533645086
153,534.0,13.0,-1.3648755524581775
154,534.0,14.0,2.8804633102413093
155,534.0,17.0,-17.164732764962597
156,534.0,19.0,-20.850450998442305
157,534.0,24.0,-22.85416163024258
158,534.0,28.0,-10.382129944966367
159,535.0,2.0,31.954013330763857
160,535.0,6.0,-22.81790454556934
161,535.0,12.0,-3.1217144581514913
162,535.0,13.0,-4.965739041681579
163,535.0,14.0,-10.137039679873192
164,535.0,17.0,-17.424306124766435
165,535.0,19.0,-21.065815955686297
166,535.0,24.0,-21.237387346912108
167,535.0,28.0,-10.968873083287445
168,536.0,6.0,-22.862248001914722
169,536.0,12.0,-12.603171650590813
170,536.0,13.0,5.4832528214588505
171,536.0,14.0,-9.126241291122534
172,536.0,15.0,15.036931108767108
173,536.0,17.0,-15.810503646167108
174,536.0,19.0,-21.947229553530974
175,536.0,24.0,-22.876630874640842
176,536.0,28.0,-7.754615465912805
177,537.0,2.0,0.0589015980392345
178,537.0,6.0,-22.821216356351215
179,537.0,12.0,-12.45991478995151
180,537.0,13.0,9.838071905454292
181,537.0,14.0,-8.451649004477911
182,537.0,15.0,6.578795349235827
183,537.0,17.0,-14.471141835144559
184,537.0,19.0,-21.978259803376762
185,537.0,24.0,-22.956794721539204
186,537.0,28.0,-7.00013402304016
187,538.0,2.0,-3.5333554798915587
188,538.0,6.0,-22.800624656117208
189,538.0,12.0,-6.659143732542286
190,538.0,13.0,8.231599814140289
191,538.0,14.0,-8.38334336503279
192,538.0,17.0,-2.116750969199587
193,538.0,19.0,-21.207089297808203
194,538.0,24.0,-22.817587246470655
195,538.0,28.0,-8.85215936946756
196,539.0,2.0,-7.726511370359098
197,539.0,6.0,-23.004014920124373
198,539.0,12.0,-5.502561186844367
199,539.0,14.0,-8.439982360162068
200,539.0,17.0,0.6420876544189483
201,539.0,19.0,-20.570439482407487
202,539.0,24.0,-21.554455023884035
203,539.0,28.0,-9.68807138741502
204,540.0,2.0,-10.199930814983412
205,540.0,6.0,-22.821330486061235
206,540.0,12.0,-5.763338259422866
207,540.0,13.0,24.101300605857194
208,540.0,14.0,-9.854854780365681
209,540.0,15.0,0.5420284310923115
210,540.0,17.0,-0.6061214696600534
211,540.0,19.0,-19.714747091134655
212,540.0,24.0,-19.69842708772047
213,540.0,28.0,-5.147679747524148
214,541.0,2.0,-8.781152574440464
215,541.0,6.0,-19.69135298950866
216,541.0,12.0,-5.465324081251289
217,541.0,13.0,6.958925835625997
218,541.0,14.0,-7.639748929855572
219,541.0,15.0,3.9781738920280456
220,541.0,17.0,-0.18590741745992506
221,541.0,19.0,-16.216480751969137
222,541.0,24.0,-19.18772598390047
223,541.0,28.0,-10.37221978108959
224,542.0,2.0,-12.520935707707858
225,542.0,6.0,-18.139231387597366
226,542.0,12.0,-12.342299441033681
227,542.0,13.0,5.804243932322354
228,542.0,14.0,3.848740864897688
229,542.0,15.0,4.496522724418489
230,542.0,17.0,-11.744944482116546
231,542.0,19.0,-21.26784064800518
232,542.0,24.0,-19.757651140695888
233,542.0,28.0,-7.9024860984696
234,543.0,2.0,-6.4498150772196325
235,543.0,6.0,-22.365758327167832
236,543.0,12.0,-10.523695366357344
237,543.0,13.0,7.990437363767897
238,543.0,15.0,5.819488414240351
239,543.0,17.0,-15.684001319926558
240,543.0,19.0,-18.87937747707086
241,543.0,24.0,-22.86614459603573
242,543.0,28.0,2.8013032463158933
243,544.0,2.0,-5.435691072510704
244,544.0,6.0,-23.14812517778875
245,544.0,12.0,-10.719897340368092
246,544.0,13.0,7.132214837017506
247,544.0,14.0,8.7455581682287
248,544.0,15.0,3.89158790749504
249,544.0,17.0,2.8210029346585315
250,544.0,19.0,-18.77187955914061
251,544.0,24.0,-21.079324457602322
252,544.0,28.0,11.837186129023046
253,545.0,2.0,-5.23400921891394
254,545.0,6.0,-21.718622193314452
255,545.0,12.0,-10.42476612678046
256,545.0,13.0,3.891253744486219
257,545.0,14.0,4.994860413372486
258,545.0,15.0,10.669776400759712
259,545.0,17.0,-13.401276512799257
260,545.0,19.0,-21.020035344761425
261,545.0,24.0,-19.208484701202586
262,545.0,28.0,-1.8187179858453602
263,546.0,2.0,-4.2708426672050095
264,546.0,6.0,-22.381425876596
265,546.0,12.0,-12.890938377423202
266,546.0,13.0,0.4765373273561771
267,546.0,17.0,-16.036140605528995
268,546.0,19.0,-22.045349320314266
269,546.0,24.0,-22.70812666373679
270,546.0,28.0,6.394321441087169
271,547.0,2.0,-10.547627787480208
272,547.0,6.0,-22.465448442743284
273,547.0,12.0,-11.946467259712612
274,547.0,13.0,3.818030171723828
275,547.0,15.0,-5.236728776630676
276,547.0,17.0,-3.1633456328499463
277,547.0,19.0,-22.3105871173428
278,547.0,24.0,-22.79839107806422
279,548.0,2.0,-13.568473815902134
280,548.0,6.0,-22.532205596512764
281,548.0,12.0,-11.58758182804815
282,548.0,13.0,7.7417554506165605
283,548.0,15.0,-4.457234131205586
284,548.0,19.0,-20.654699871030907
285,548.0,24.0,-22.915107698317183
286,548.0,28.0,17.23463522850126
287,549.0,2.0,-5.439702492156787
288,549.0,6.0,-23.023282854833152
289,549.0,12.0,-11.744980516122213
290,549.0,13.0,5.858517789553077
291,549.0,15.0,-3.248831294803147
292,549.0,19.0,-21.942087428268703
293,549.0,24.0,-23.043957565233427
294,550.0,2.0,-7.128740719079548
295,550.0,6.0,-24.17875893357747
296,550.0,12.0,-9.10959798722482
297,550.0,14.0,32.00332942893304
298,550.0,19.0,-24.02643483199915
299,550.0,24.0,-20.980857619438947
300,550.0,28.0,36.248098948834
301,551.0,2.0,-8.986522689430277
302,551.0,6.0,-24.2888326003202
303,551.0,12.0,-10.873531583021139
304,551.0,19.0,-23.444142338631142
305,551.0,24.0,-24.298543608494217
306,552.0,2.0,-12.342175878169849
307,552.0,6.0,-25.769138738958624
308,552.0,12.0,-11.825716816981384
309,552.0,13.0,5.870591280180315
310,552.0,19.0,-25.376278898878024
311,552.0,24.0,-23.168660974367388
312,553.0,2.0,-12.562589568359018
313,553.0,6.0,-28.782146207849447
314,553.0,12.0,-13.65052775877066
315,553.0,13.0,6.7623903736419075
316,553.0,17.0,-22.946518124826465
317,553.0,19.0,-32.44660504470437
318,553.0,24.0,-31.107377687916294
319,553.0,28.0,16.78054943605956
320,554.0,2.0,-34.4238370276149
321,554.0,6.0,-50.866924282952
322,554.0,12.0,-28.27798987739327
323,554.0,17.0,-43.54597117073736
324,554.0,19.0,-61.497420452949825
325,554.0,24.0,-61.99246712081176
326,554.0,28.0,-7.890660368403389
327,555.0,2.0,-37.01168054679779
328,555.0,6.0,-56.44609610905407
329,555.0,12.0,-22.048959101117163
330,555.0,13.0,-0.5801440631125935
331,555.0,17.0,-18.641799292512104
332,555.0,19.0,-59.24008368092964
333,555.0,24.0,-59.029206702582734
334,555.0,28.0,-4.7969544630484515
335,556.0,2.0,-34.632768859891264
336,556.0,6.0,-59.68043198029343
337,556.0,12.0,-22.09199200563957
338,556.0,13.0,-5.360044797381242
339,556.0,17.0,-16.901458456805145
340,556.0,19.0,-61.87030061802131
341,556.0,24.0,-61.87094156317021
342,556.0,28.0,-14.483349424634163
343,557.0,2.0,-36.109851345222516
344,557.0,6.0,-54.56046241342483
345,557.0,12.0,-27.348742088590527
346,557.0,13.0,-6.10814513292705
347,557.0,14.0,13.745317921126372
348,557.0,17.0,-16.6892758623903
349,557.0,19.0,-56.86750446162862
350,557.0,24.0,-56.754914052909015
351,557.0,28.0,-8.151342364772395
352,558.0,2.0,-40.55873307375987
353,558.0,6.0,-62.461202749558446
354,558.0,12.0,-34.87793425889345
355,558.0,13.0,-5.954476554405692
356,558.0,17.0,-15.215577792235157
357,558.0,19.0,-63.31435825980934
358,558.0,24.0,-62.64363465634574
359,559.0,2.0,-44.82135924237877
360,559.0,6.0,-64.4145974149096
361,559.0,12.0,-35.4822257995141
362,559.0,13.0,-1.358333065520079
363,559.0,19.0,-64.8229045024375
364,559.0,24.0,-64.20633715457734
365,560.0,2.0,-40.79503742016823
366,560.0,6.0,-65.77398181131106
367,560.0,12.0,-35.78751564435209
368,560.0,13.0,-2.779478924294353
369,560.0,17.0,-17.479740603771603
370,560.0,19.0,-66.25679484523043
371,560.0,24.0,-65.15647598396903
372,561.0,2.0,-34.273333762289425
373,561.0,6.0,-61.21317734668151
374,561.0,12.0,-33.47312920407435
375,561.0,13.0,-2.5431935400597534
376,561.0,17.0,-21.648073696020074
377,561.0,19.0,-60.66957829446882
378,561.0,24.0,-60.04208118751031
379,562.0,2.0,-39.28379747715641
380,562.0,6.0,-65.38294740128693
381,562.0,12.0,-34.7471184014285
382,562.0,13.0,2.1661964567083607
383,562.0,17.0,-28.374583724392277
384,562.0,19.0,-65.0193738015608
385,562.0,24.0,-64.64993554627375
386,563.0,2.0,-38.63420084251926
387,563.0,6.0,-62.69193251101778
388,563.0,12.0,-32.378288140965026
389,563.0,13.0,6.8482018318611155
390,563.0,17.0,-21.754335960235725
391,563.0,19.0,-62.75843048876798
392,563.0,24.0,-62.99966818986376
393,563.0,28.0,30.607517616600806
394,564.0,2.0,-34.93361466586754
395,564.0,6.0,-65.07271441987882
396,564.0,12.0,-33.68955027826628
397,564.0,17.0,-21.253816261798153
398,564.0,19.0,-65.07800591764935
399,564.0,24.0,-65.43810188723174
400,565.0,2.0,-29.26490228696553
401,565.0,6.0,-57.829939160013275
402,565.0,12.0,-30.340712896332285
403,565.0,13.0,19.76875710189659
404,565.0,14.0,0.11701494192224797
405,565.0,17.0,-17.005035824108475
406,565.0,19.0,-57.87550069744602
407,565.0,24.0,-57.83596106790455
408,565.0,28.0,2.2085662153780774
409,566.0,2.0,-28.204552442564776
410,566.0,6.0,-57.07614848596371
411,566.0,12.0,-30.56550740112063
412,566.0,17.0,-21.79554448844626
413,566.0,19.0,-57.81861492252539
414,566.0,24.0,-57.64367180152356
415,566.0,28.0,-9.129171151782721
416,567.0,2.0,-32.44800665000184
417,567.0,6.0,-66.48782859955054
418,567.0,12.0,-35.874823198715035
419,567.0,17.0,-27.47410446149983
420,567.0,19.0,-67.20861675116943
421,567.0,24.0,-66.98047217847702
422,567.0,28.0,-13.897796838537339
423,568.0,2.0,-28.27032113574927
424,568.0,6.0,-59.59183682111192
425,568.0,12.0,-31.821926667191203
426,568.0,13.0,33.05517022031244
427,568.0,17.0,-24.112092851066514
428,568.0,19.0,-60.14307565512382
429,568.0,24.0,-59.971072081534416
430,568.0,28.0,-17.202584172915945
431,569.0,2.0,-26.466195937978842
432,569.0,6.0,-62.24482356361005
433,569.0,12.0,-31.591258553032137
434,569.0,13.0,5.674261906318161
435,569.0,17.0,-26.213845521673008
436,569.0,19.0,-63.23332900073473
437,569.0,24.0,-63.18372434393809
438,569.0,28.0,-21.08391392687644
439,570.0,6.0,-67.26676012335652
440,570.0,12.0,-33.61774563449241
441,570.0,13.0,-2.3222547135155613
442,570.0,17.0,-25.539615679994377
443,570.0,19.0,-68.27405062892444
444,570.0,24.0,-68.25310924918011
445,570.0,28.0,-19.251975472102203
446,571.0,2.0,-32.50197055338876
447,571.0,6.0,-59.36054297370607
448,571.0,12.0,-32.589463146141895
449,571.0,13.0,1.1138103994193191
450,571.0,14.0,12.093740827053306
451,571.0,17.0,-20.472226264850757
452,571.0,19.0,-59.72219248073435
453,571.0,24.0,-59.771716282617774
454,571.0,28.0,-14.07991689108881
455,572.0,2.0,-38.614492080191695
456,572.0,6.0,-56.29471292004948
457,572.0,12.0,-31.502372847016126
458,572.0,14.0,-0.16677458302726644
459,572.0,17.0,-16.233134682353008
460,572.0,19.0,-57.280854228715555
461,572.0,24.0,-56.63949882264405
462,572.0,28.0,-25.441108932318194
463,573.0,2.0,-38.601108737367
464,573.0,6.0,-54.597723494190646
465,573.0,12.0,-28.516476454587817
466,573.0,13.0,11.292925024622795
467,573.0,14.0,2.4977373668487144
468,573.0,17.0,-15.353183467426485
469,573.0,19.0,-56.22971606150479
470,573.0,24.0,-54.48943781170613
471,573.0,28.0,-10.645037437005696
472,574.0,2.0,-42.830368926091154
473,574.0,6.0,-57.64154308796504
474,574.0,12.0,-30.61625264634628
475,574.0,17.0,-17.518938755963728
476,574.0,19.0,-59.36180042298302
477,574.0,24.0,-58.72222509335582
478,574.0,28.0,-10.885461425513972
479,575.0,2.0,-40.24652213439619
480,575.0,6.0,-59.16810216442862
481,575.0,12.0,-29.50870718952484
482,575.0,13.0,25.845316848714983
483,575.0,19.0,-58.98812707133283
484,575.0,24.0,-58.680946088945554
485,575.0,28.0,-30.81899158481708
486,576.0,2.0,-44.999758675699205
487,576.0,6.0,-59.52439930561995
488,576.0,12.0,-30.907070389279863
489,576.0,19.0,-60.673639663840326
490,576.0,24.0,-60.25137973023176
491,576.0,28.0,-34.347040012428515
492,577.0,2.0,-35.44353343686673
493,577.0,6.0,-56.896432983057764
494,577.0,12.0,-23.88730090845821
495,577.0,17.0,-39.92678069064042
496,577.0,19.0,-56.035120217354596
497,577.0,24.0,-58.56875671130947
498,577.0,28.0,-32.370463579305664
499,578.0,2.0,-45.06315154343884
500,578.0,6.0,-57.159009888597495
501,578.0,12.0,-30.278350060777484
502,578.0,13.0,6.113549042844823
503,578.0,14.0,-25.511053505671796
504,578.0,17.0,-42.711762681690615
505,578.0,19.0,-61.312299598723534
506,578.0,24.0,-62.083941986531855
507,578.0,28.0,-31.03569419719781
508,579.0,2.0,-50.83522969601688
509,579.0,6.0,-64.9187636485478
510,579.0,12.0,-36.197941480499104
511,579.0,14.0,-15.365711088241166
512,579.0,17.0,-47.17529033107724
513,579.0,19.0,-67.368828903697
514,579.0,24.0,-71.20933544383838
515,579.0,28.0,-15.438436038395693
516,580.0,2.0,-40.538569163253875
517,580.0,6.0,-63.679487704437335
518,580.0,12.0,-38.4605984075151
519,580.0,13.0,-3.3071806793318426
520,580.0,14.0,-11.673811763532912
521,580.0,15.0,1.4011536045084179
522,580.0,17.0,-48.52676342462267
523,580.0,19.0,-64.19303942030861
524,580.0,24.0,-68.02477648539546
525,580.0,28.0,-21.15165235639411
526,581.0,2.0,-47.11573564741584
527,581.0,6.0,-65.42376462717924
528,581.0,12.0,-36.85689417263745
529,581.0,13.0,-12.365888383425677
530,581.0,17.0,-49.00287561831939
531,581.0,19.0,-64.02657962922507
532,581.0,24.0,-68.03792786010456
533,581.0,28.0,-23.384384345607945
534,582.0,2.0,-53.16002716754794
535,582.0,6.0,-69.18822936120465
536,582.0,12.0,-39.53293390946422
537,582.0,14.0,-13.226938061146935
538,582.0,15.0,6.600501939319651
539,582.0,17.0,-48.93949483338331
540,582.0,19.0,-68.36426325299824
541,582.0,24.0,-73.23356640898726
542,582.0,28.0,-30.2660409260768
543,583.0,2.0,-48.9394678781793
544,583.0,6.0,-65.50243652103049
545,583.0,12.0,-34.698532154423
546,583.0,13.0,-4.096471932943731
547,583.0,17.0,-46.12726827439628
548,583.0,19.0,-65.44041877603888
549,583.0,24.0,-67.6594953616977
550,583.0,28.0,-32.93113395298328
551,584.0,2.0,-40.93061926958681
552,584.0,6.0,-64.68096278340215
553,584.0,12.0,-31.923576088049426
554,584.0,14.0,-21.33493471357871
555,584.0,15.0,-4.424626521047026
556,584.0,17.0,-48.17886435207242
557,584.0,19.0,-61.551515338235944
558,584.0,24.0,-67.52001005781479
559,584.0,28.0,-35.69793364531701
560,585.0,2.0,-40.842750248745816
561,585.0,6.0,-64.46013026062289
562,585.0,12.0,-34.69028235519861
563,585.0,13.0,-4.420743312451913
564,585.0,14.0,-25.035635215651304
565,585.0,15.0,-12.710925695316991
566,585.0,17.0,-47.965373143590334
567,585.0,19.0,-58.074560843289746
568,585.0,24.0,-67.52302628536421
569,585.0,28.0,-34.88130584930035
570,586.0,2.0,-37.59558534245579
571,586.0,6.0,-64.26863154954698
572,586.0,12.0,-32.409878326980596
573,586.0,13.0,-16.385875080165455
574,586.0,14.0,-16.698315136583066
575,586.0,15.0,-12.128698051768355
576,586.0,17.0,-47.766668720371115
577,586.0,19.0,-63.528339122275845
578,586.0,24.0,-67.42489521493407
579,586.0,28.0,-32.1308188179873
580,587.0,6.0,-64.06424798312385
581,587.0,12.0,-33.228497875814135
582,587.0,13.0,-15.456811559640121
583,587.0,14.0,-17.40715382415432
584,587.0,15.0,-13.592063517676525
585,587.0,17.0,-47.44637183846833
586,587.0,19.0,-62.55944442248863
587,587.0,24.0,-67.36019638062344
588,587.0,28.0,-33.927814087827194
589,588.0,2.0,-21.742995816411593
590,588.0,6.0,-64.05541429530395
591,588.0,12.0,-35.10890097017892
592,588.0,13.0,-14.209243686808371
593,588.0,15.0,-11.741689936674847
594,588.0,17.0,-47.04028118852403
595,588.0,19.0,-59.78281818368028
596,588.0,24.0,-67.10553883441895
597,588.0,28.0,-34.58660344802934
598,589.0,6.0,-65.08183127201117
599,589.0,12.0,-35.01161861228398
600,589.0,13.0,-11.276459394761487
601,589.0,15.0,-5.912115108540859
602,589.0,17.0,-47.55780955717906
603,589.0,19.0,-60.66605398282538
604,589.0,24.0,-67.3986258837169
605,589.0,28.0,-31.36672915308801
606,590.0,6.0,-67.18129228344898
607,590.0,12.0,-34.22518212327449
608,590.0,17.0,-47.26351484101276
609,590.0,19.0,-63.72469317112899
610,590.0,24.0,-69.66608564040087
611,590.0,28.0,-28.5336685479878
612,591.0,2.0,-34.472858986367626
613,591.0,6.0,-65.23906701586583
614,591.0,12.0,-35.16704325071115
615,591.0,14.0,-11.967435642741295
616,591.0,15.0,-0.8572024871498799
617,591.0,17.0,-47.5039685919777
618,591.0,19.0,-63.707427181008775
619,591.0,24.0,-67.1797800014755
620,591.0,28.0,-33.70607839587979
621,592.0,2.0,-39.262580964706125
622,592.0,6.0,-66.19838838494985
623,592.0,12.0,-36.32556792392795
624,592.0,13.0,13.618581051088919
625,592.0,14.0,-19.506878272196754
626,592.0,15.0,1.354022039650478
627,592.0,17.0,-48.62683882871664
628,592.0,19.0,-64.91771305314906
629,592.0,24.0,-68.8459843746378
630,592.0,28.0,-35.55139695397026
631,593.0,2.0,-45.20225453778864
632,593.0,6.0,-66.27562069339174
633,593.0,12.0,-38.015615326706794
634,593.0,13.0,-12.95538294988998
635,593.0,14.0,-15.540918655858988
636,593.0,15.0,0.7883741172337276
637,593.0,17.0,-48.139464144268764
638,593.0,19.0,-64.87211722354631
639,593.0,24.0,-68.60779378788992
640,593.0,28.0,-35.31108471189595
641,594.0,2.0,-45.16972225599546
642,594.0,6.0,-66.27562069339174
643,594.0,12.0,-38.7298828782186
644,594.0,13.0,-16.598032992411213
645,594.0,14.0,-26.087554443677252
646,594.0,17.0,-47.4502472844199
647,594.0,19.0,-65.50507972192239
648,594.0,24.0,-68.60779378788992
649,594.0,28.0,-36.21725142465522
650,595.0,2.0,-38.82665403142232
651,595.0,6.0,-65.05946289900717
652,595.0,12.0,-37.282034787602726
653,595.0,13.0,-16.42412270869513
654,595.0,14.0,-21.970735547008957
655,595.0,17.0,-45.325460682931116
656,595.0,19.0,-64.24611578682854
657,595.0,24.0,-67.44566700345241
658,595.0,28.0,-32.948193738880455
659,596.0,2.0,-40.227339096207146
660,596.0,6.0,-65.88213729036484
661,596.0,12.0,-37.47258759151799
662,596.0,13.0,-17.221434176195714
663,596.0,14.0,-25.37976663246991
664,596.0,15.0,20.10652068565972
665,596.0,17.0,-45.327643973449476
666,596.0,19.0,-65.43807166911942
667,596.0,24.0,-68.55789712274733
668,596.0,28.0,-35.85901562076694
669,597.0,2.0,-45.66234064171468
670,597.0,6.0,-64.85981371659783
671,597.0,12.0,-35.40937317245011
672,597.0,13.0,-10.805492562386524
673,597.0,17.0,-44.714357319284844
674,597.0,19.0,-64.55566158421381
675,597.0,24.0,-67.78315452040744
676,597.0,28.0,-36.04729872944679
677,598.0,2.0,-43.7587817255204
678,598.0,6.0,-65.35359335970728
679,598.0,12.0,-35.671439489998384
680,598.0,13.0,0.305067290902041
681,598.0,17.0,-44.91197184320435
682,598.0,19.0,-65.3060451068767
683,598.0,24.0,-68.06073379852144
684,598.0,28.0,-35.79258058772888
685,599.0,2.0,-42.14229873333971
686,599.0,6.0,-64.8448966298072
687,599.0,12.0,-35.43848246677392
688,599.0,15.0,16.32912204378106
689,599.0,17.0,-45.342234322943845
690,599.0,19.0,-65.20679436115076
691,599.0,24.0,-68.16962425153778
692,599.0,28.0,-36.49267930353609
693,600.0,2.0,-44.582529915088564
694,600.0,6.0,-64.76926899178827
695,600.0,12.0,-36.07909094703324
696,600.0,14.0,-16.71620083711881
697,600.0,17.0,-45.154217107380596
698,600.0,19.0,-65.58039411626622
699,600.0,24.0,-68.59520090496008
700,600.0,28.0,-36.32222104772698
701,601.0,2.0,-45.827842710436286
702,601.0,6.0,-63.27051789442806
703,601.0,12.0,-34.95070377357056
704,601.0,13.0,-3.9150753450640203
705,601.0,14.0,-22.08034043379431
706,601.0,17.0,-42.130582437499214
707,601.0,19.0,-63.515106072782025
708,601.0,24.0,-67.4913904485894
709,601.0,28.0,-35.27253404249884
710,602.0,2.0,-49.51928572335781
711,602.0,6.0,-63.32778972464134
712,602.0,12.0,-33.46238528733577
713,602.0,13.0,-16.88683674226327
714,602.0,14.0,-15.941288841932474
715,602.0,15.0,24.50842101923416
716,602.0,17.0,-39.47944327541774
717,602.0,19.0,-64.66667025820762
718,602.0,24.0,-67.403534604982
719,602.0,28.0,-34.75928847535475
720,603.0,2.0,-51.06531194687239
721,603.0,6.0,-66.38654518153496
722,603.0,12.0,-30.799091111554052
723,603.0,13.0,-17.513495291663087
724,603.0,14.0,-19.276280734934105
725,603.0,15.0,6.584208798761787
726,603.0,17.0,-40.90720910259829
727,603.0,19.0,-65.22608495658453
728,603.0,24.0,-69.30899952847498
729,603.0,28.0,-35.23334178289097
730,604.0,2.0,-50.4457317973635
731,604.0,6.0,-64.0541587051946
732,604.0,12.0,-30.720650461208752
733,604.0,13.0,-17.046643273316484
734,604.0,14.0,-19.852189396248995
735,604.0,17.0,-34.775334973894644
736,604.0,19.0,-64.05511346012771
737,604.0,24.0,-68.43825716364896
738,604.0,28.0,-35.097209979011694
739,605.0,2.0,-49.858468570716646
740,605.0,6.0,-64.45868221288504
741,605.0,12.0,-21.694242365395496
742,605.0,13.0,-14.001656853199725
743,605.0,14.0,-17.53640812771961
744,605.0,15.0,18.46509500173014
745,605.0,17.0,-39.28114579872476
746,605.0,19.0,-64.92757587250927
747,605.0,24.0,-67.93719878572814
748,605.0,28.0,-34.66799922510081
749,606.0,2.0,-49.312389214832365
750,606.0,6.0,-64.86153565870215
751,606.0,12.0,-16.784878340935368
752,606.0,14.0,-21.4097382962847
753,606.0,15.0,1.867834877631766
754,606.0,17.0,-40.07666691630642
755,606.0,19.0,-63.42807298395597
756,606.0,24.0,-67.81415089117222
757,606.0,28.0,-33.866651889490726
758,607.0,2.0,-48.53947240420493
759,607.0,6.0,-65.02762524802556
760,607.0,12.0,-15.192051602921692
761,607.0,14.0,-24.442073381223377
762,607.0,17.0,-36.95006656832921
763,607.0,19.0,-63.553460423236864
764,607.0,24.0,-67.93674571589246
765,607.0,28.0,-33.9317657261931
766,608.0,2.0,-49.96095375207655
767,608.0,6.0,-67.42589932037073
768,608.0,12.0,-21.669472794699356
769,608.0,13.0,-1.1594410310160779
770,608.0,14.0,-20.561178618087897
771,608.0,15.0,8.78911453699192
772,608.0,17.0,-45.56490284706366
773,608.0,19.0,-65.59979391239001
774,608.0,24.0,-70.12176818343421
775,608.0,28.0,-33.762270975891155
776,609.0,2.0,-41.05375567574075
777,609.0,6.0,-69.46843992417281
778,609.0,12.0,-31.334648551548604
779,609.0,13.0,-14.533493046070834
780,609.0,14.0,-20.41532922501168
781,609.0,17.0,-45.56239835208979
782,609.0,19.0,-65.96353290650443
783,609.0,24.0,-71.61488178450288
784,609.0,28.0,-29.5341853874404
785,610.0,2.0,-50.029068842267286
786,610.0,6.0,-66.654451622396
787,610.0,12.0,-30.191672380146432
788,610.0,13.0,-12.381019872023161
789,610.0,14.0,-9.649707906551054
790,610.0,17.0,-40.552492389764176
791,610.0,19.0,-60.6209028311735
792,610.0,24.0,-68.25033054785351
793,610.0,28.0,-23.14911595321239
794,611.0,2.0,-51.47071221955115
795,611.0,6.0,-69.78424506282396
796,611.0,12.0,-15.963894436313423
797,611.0,13.0,-16.030228500103323
798,611.0,14.0,-9.880078367985217
799,611.0,17.0,-46.44354282683526
800,611.0,19.0,-54.834528054063504
801,611.0,24.0,-72.0243767092723
802,611.0,28.0,-31.832105569516855
803,612.0,2.0,-49.51591290364469
804,612.0,6.0,-65.34596348414122
805,612.0,12.0,-15.218329615475504
806,612.0,14.0,-10.423047574799229
807,612.0,17.0,-45.2675036184341
808,612.0,19.0,-60.01264918674312
809,612.0,24.0,-68.56857450163734
810,612.0,28.0,-32.40460818483855
811,613.0,2.0,-45.912645198491276
812,613.0,6.0,-65.10639691583086
813,613.0,12.0,-16.177517787010157
814,613.0,14.0,-11.948616366829985
815,613.0,17.0,-44.769821930465696
816,613.0,19.0,-61.664556607954225
817,613.0,24.0,-67.7473051831937
818,613.0,28.0,-32.59778607125134
819,614.0,2.0,-49.639476796522246
820,614.0,6.0,-68.52472182037106
821,614.0,13.0,1.154300672097157
822,614.0,14.0,-20.249365948922833
823,614.0,17.0,-47.346214477690545
824,614.0,19.0,-51.626057607016655
825,614.0,24.0,-72.52840528089102
826,614.0,28.0,-22.544981885186356
827,615.0,2.0,-46.97624727586872
828,615.0,6.0,-65.18014362789191
829,615.0,12.0,-13.933469570193878
830,615.0,14.0,-15.98893326174305
831,615.0,17.0,-45.3215516674283
832,615.0,19.0,-49.893206405855196
833,615.0,24.0,-68.72034596777004
834,615.0,28.0,-30.151361033569128
835,616.0,2.0,-46.373353872325026
836,616.0,6.0,-66.2275300817876
837,616.0,12.0,-15.364388105570983
838,616.0,13.0,-3.052440383472064
839,616.0,14.0,-12.723819947448268
840,616.0,17.0,-45.93374373416645
841,616.0,19.0,-55.63229059073781
842,616.0,24.0,-70.1498945686303
843,616.0,28.0,-24.439016353264517
844,617.0,2.0,-40.73108834098161
845,617.0,6.0,-68.73964950481209
846,617.0,12.0,-12.225335575029822
847,617.0,13.0,-9.949313377611624
848,617.0,17.0,-46.04554313055635
849,617.0,19.0,-57.80973763195166
850,617.0,24.0,-71.54319365002556
851,617.0,28.0,-27.081197936882788
852,618.0,2.0,-44.05995537823305
853,618.0,6.0,-69.1880411311196
854,618.0,12.0,-12.853447727078532
855,618.0,13.0,-9.045970422321325
856,618.0,14.0,-15.985562358644998
857,618.0,17.0,-47.006537700751
858,618.0,19.0,-55.03005179607631
859,618.0,24.0,-73.46917055232284
860,618.0,28.0,-21.841346891483145
861,619.0,6.0,-76.34319465350485
862,619.0,14.0,-16.50963953567138
863,619.0,15.0,39.26509540897597
864,619.0,17.0,-53.272048289665655
865,619.0,19.0,-64.09193447432378
866,619.0,24.0,-80.43593878870348
867,619.0,28.0,-35.66466184906419
868,620.0,2.0,-13.861819771521354
869,620.0,6.0,-67.16300845131562
870,620.0,12.0,-0.32802541451314643
871,620.0,13.0,-4.5782264909352826
872,620.0,17.0,-45.58233889044756
873,620.0,19.0,-61.63596357833905
874,620.0,24.0,-69.79311734793542
875,620.0,28.0,-31.78708085366751
876,621.0,2.0,-41.63410656462783
877,621.0,6.0,-73.41797135549972
878,621.0,12.0,-22.448131417750982
879,621.0,17.0,-46.787538502359524
880,621.0,19.0,-67.43368901784928
881,621.0,24.0,-76.40664417238816
882,621.0,28.0,-36.4392081196999
883,622.0,2.0,-43.350846017710296
884,622.0,6.0,-65.45570548488209
885,622.0,12.0,-34.55830641272607
886,622.0,14.0,-9.809553070370857
887,622.0,17.0,-45.90901466346799
888,622.0,19.0,-65.43762930439324
889,622.0,24.0,-68.66146489199079
890,622.0,28.0,-25.874834288960233
891,623.0,2.0,-42.86191256128586
892,623.0,6.0,-64.35951939205253
893,623.0,12.0,-30.76828027292967
894,623.0,13.0,3.189801534451043
895,623.0,15.0,4.719190585135826
896,623.0,17.0,-48.18019677776764
897,623.0,19.0,-64.15420680836756
898,623.0,24.0,-68.56545574087313
899,623.0,28.0,-17.470448535807716
900,624.0,2.0,-45.91978797029574
901,624.0,6.0,-69.88768030336968
902,624.0,12.0,-30.992551556177343
903,624.0,17.0,-52.626786136798906
904,624.0,19.0,-72.40308035964102
905,624.0,24.0,-74.88557263660381
906,624.0,28.0,-31.0320684644728
907,625.0,2.0,-42.93558837829554
908,625.0,6.0,-65.67394102548036
909,625.0,12.0,-14.487355038888397
910,625.0,13.0,7.497127342458045
911,625.0,15.0,17.39804454092561
912,625.0,17.0,-50.16913057644815
913,625.0,19.0,-68.4788079211646
914,625.0,24.0,-70.77372853531027
915,625.0,28.0,-26.578757029991124
916,626.0,2.0,-50.137141761529264
917,626.0,6.0,-67.21214198479602
918,626.0,12.0,-15.47660010157786
919,626.0,13.0,4.4999999988354995
920,626.0,14.0,-25.535312937992142
921,626.0,15.0,1.7539459352312143
922,626.0,17.0,-48.795338297555645
923,626.0,19.0,-66.47081201780729
924,626.0,24.0,-67.87429436349683
925,626.0,28.0,-15.588548381113258
926,627.0,2.0,-52.61636142341047
927,627.0,6.0,-67.85927990941136
928,627.0,12.0,-18.6769341904291
929,627.0,14.0,-17.811534235333983
930,627.0,15.0,-4.9118871967667985
931,627.0,17.0,-46.54593021120061
932,627.0,19.0,-66.22118866290629
933,627.0,24.0,-67.94019547021854
934,627.0,28.0,-21.39779471781592
935,628.0,2.0,-55.680989222883184
936,628.0,6.0,-67.82916725445159
937,628.0,12.0,-13.259125717262936
938,628.0,14.0,-14.512629758771322
939,628.0,15.0,9.897308935152102
940,628.0,17.0,-46.264521046723615
941,628.0,19.0,-66.05066709437509
942,628.0,24.0,-68.03597567764395
943,628.0,28.0,-28.754688176495275
944,629.0,2.0,-54.944904575150034
945,629.0,6.0,-66.84036625917412
946,629.0,12.0,-22.572682019409864
947,629.0,14.0,-9.938144572354656
948,629.0,17.0,-45.212547057727186
949,629.0,19.0,-66.3301947482458
950,629.0,24.0,-67.84018379362132
951,629.0,28.0,-37.48004885403169
952,630.0,2.0,-51.29965672030588
953,630.0,6.0,-66.96920874574177
954,630.0,12.0,-21.76881617838992
955,630.0,13.0,44.705849919593916
956,630.0,14.0,-5.743954120880196
957,630.0,17.0,-48.696022004402295
958,630.0,19.0,-64.56788698897017
959,630.0,24.0,-67.69867750985435
960,630.0,28.0,-38.29254598486873
961,631.0,2.0,-50.716194103812484
962,631.0,6.0,-64.43457515081342
963,631.0,12.0,-32.24524906497198
964,631.0,15.0,3.9279306246819585
965,631.0,17.0,-29.6912157812319
966,631.0,19.0,-62.81914497043411
967,631.0,24.0,-62.810073560527954
968,631.0,28.0,-24.8758320847132
969,632.0,2.0,-47.392976993254415
970,632.0,6.0,-66.38655385671088
971,632.0,12.0,-35.47980043531069
972,632.0,13.0,0.3854815993712853
973,632.0,14.0,-4.365942508878282
974,632.0,15.0,3.586186707552118
975,632.0,17.0,-30.4450500581662
976,632.0,19.0,-65.80741284507249
977,632.0,24.0,-61.81864897165321
978,632.0,28.0,-22.551648660058156
979,633.0,2.0,-49.288362535414514
980,633.0,6.0,-66.87192860989384
981,633.0,12.0,-29.578593094294387
982,633.0,13.0,1.4170766405085362
983,633.0,17.0,-43.36864481732289
984,633.0,19.0,-66.97223112918397
985,633.0,24.0,-60.7322474008818
986,633.0,28.0,-31.992743838435494
987,634.0,2.0,-45.56324784385956
988,634.0,6.0,-65.25080580683134
989,634.0,12.0,-18.09124707992019
990,634.0,13.0,1.366974024462245
991,634.0,17.0,-45.57121526339776
992,634.0,19.0,-65.37591525122774
993,634.0,24.0,-65.75195261113605
994,634.0,28.0,-17.421870201817516
995,635.0,2.0,-49.88762003253529
996,635.0,6.0,-58.34264299783734
997,635.0,12.0,-15.455205080801623
998,635.0,13.0,-2.4435536514111953
999,635.0,17.0,-44.88540381471626
1000,635.0,19.0,-60.12268050180975
1001,635.0,24.0,-61.78836152802552
1002,635.0,28.0,-35.15109381390838
1003,636.0,2.0,-45.318136514692256
1004,636.0,6.0,-51.86870069357582
1005,636.0,12.0,-15.580913592552097
1006,636.0,15.0,-14.472982965347155
1007,636.0,17.0,-34.21957548526258
1008,636.0,19.0,-51.860552424274054
1009,636.0,24.0,-53.95358319326024
1010,636.0,28.0,-15.580913592552097
1011,637.0,2.0,-50.63435277938289
1012,637.0,6.0,-54.58205188296369
1013,637.0,12.0,-20.838258050612982
1014,637.0,13.0,12.869560291902367
1015,637.0,14.0,-29.737719678619214
1016,637.0,15.0,1.87279131115566
1017,637.0,17.0,-41.49649353905233
1018,637.0,19.0,-55.275793501066154
1019,637.0,24.0,-59.564167987266416
1020,637.0,28.0,-34.111828912240604
1021,638.0,2.0,-51.52534345012057
1022,638.0,6.0,-60.38784112639358
1023,638.0,12.0,-34.38099301966171
1024,638.0,13.0,-0.9724314116745147
1025,638.0,14.0,-8.055989427708898
1026,638.0,15.0,1.826646228418143
1027,638.0,17.0,-43.51464971274366
1028,638.0,19.0,-58.95630349278858
1029,638.0,24.0,-60.92633139233229
1030,638.0,28.0,-33.481997684311615
1031,639.0,2.0,-50.69842782151884
1032,639.0,6.0,-61.604490446462016
1033,639.0,12.0,-36.23630981775069
1034,639.0,13.0,-5.24149145879283
1035,639.0,14.0,-14.767499903295274
1036,639.0,15.0,3.004363696748739
1037,639.0,17.0,-41.0098797882641
1038,639.0,19.0,-59.75508131552178
1039,639.0,24.0,-57.022716067526424
1040,639.0,28.0,-24.425188772653303
1041,640.0,2.0,-44.180707154488374
1042,640.0,6.0,-53.03545965137509
1043,640.0,12.0,-31.578865959896216
1044,640.0,14.0,-11.539499502548162
1045,640.0,17.0,-40.0020993343274
1046,640.0,19.0,-54.08897787563718
1047,640.0,24.0,-47.29172529447217
1048,640.0,28.0,-16.939777494688283
1049,641.0,2.0,-42.916868161674614
1050,641.0,6.0,-53.73192735287119
1051,641.0,12.0,-31.484299119387543
1052,641.0,17.0,-40.67799798193625
1053,641.0,19.0,-54.08873384444427
1054,641.0,24.0,-51.915829435985486
1055,641.0,28.0,-30.631427886204364
1056,642.0,2.0,-45.02960432901457
1057,642.0,6.0,-54.147326742660525
1058,642.0,12.0,-31.238736969541918
1059,642.0,17.0,-41.87458298771774
1060,642.0,19.0,-54.21466091893925
1061,642.0,24.0,-54.71241480743034
1062,642.0,28.0,-30.657644102273597
1063,643.0,2.0,-45.09702997790694
1064,643.0,6.0,-53.59653692892441
1065,643.0,12.0,-30.773101448667944
1066,643.0,17.0,-40.13004643119312
1067,643.0,19.0,-53.141054764773095
1068,643.0,24.0,-54.06845543019343
1069,643.0,28.0,-28.607265426018532
1070,644.0,2.0,-44.38716896601068
1071,644.0,6.0,-52.552509504542456
1072,644.0,12.0,-31.55279968777532
1073,644.0,14.0,-12.569115073271025
1074,644.0,17.0,-40.325672565996214
1075,644.0,19.0,-52.26082526162599
1076,644.0,24.0,-53.1895140003327
1077,644.0,28.0,-30.526951216585413
1078,645.0,2.0,-44.052983084627456
1079,645.0,6.0,-51.553881398979065
1080,645.0,12.0,-31.105200593584826
1081,645.0,14.0,-16.636814287267732
1082,645.0,17.0,-39.65456984050371
1083,645.0,19.0,-52.29177018339481
1084,645.0,24.0,-52.91394210476199
1085,645.0,28.0,-28.516037524854532
1086,646.0,2.0,-44.02385704479665
1087,646.0,6.0,-51.4026509786042
1088,646.0,12.0,-31.531662944474526
1089,646.0,14.0,-20.900918581373624
1090,646.0,15.0,43.585521920264846
1091,646.0,17.0,-37.899293947940876
1092,646.0,19.0,-51.535182552378274
1093,646.0,24.0,-52.65292793978652
1094,646.0,28.0,-23.53162837742223
1095,647.0,2.0,-42.820009100695984
1096,647.0,6.0,-50.922045313066704
1097,647.0,12.0,-29.18786440313116
1098,647.0,13.0,53.49029331436816
1099,647.0,14.0,-22.591810461459723
1100,647.0,15.0,9.204082560614584
1101,647.0,17.0,-33.03150700114661
1102,647.0,19.0,-51.626720987019254
1103,647.0,24.0,-52.97180998947638
1104,647.0,28.0,-29.259635407033475
1105,648.0,2.0,-42.8117876304567
1106,648.0,6.0,-51.40274351334387
1107,648.0,12.0,-29.370638353757297
1108,648.0,14.0,-23.942413898023062
1109,648.0,15.0,6.544197523308464
1110,648.0,17.0,-32.48359905139484
1111,648.0,19.0,-51.42743515176244
1112,648.0,24.0,-53.031797918051524
1113,648.0,28.0,-29.33632406808069
1114,649.0,2.0,-42.04119319586552
1115,649.0,6.0,-51.65252086513919
1116,649.0,12.0,-30.348032080544655
1117,649.0,14.0,-24.35814472801175
1118,649.0,17.0,-39.04490438282618
1119,649.0,19.0,-52.442788050849835
1120,649.0,24.0,-53.554875844335314
1121,649.0,28.0,-30.358856578025673
1122,650.0,2.0,-45.14143785935824
1123,650.0,6.0,-51.322149955685546
1124,650.0,12.0,-30.871794691187095
1125,650.0,14.0,-23.955850556316534
1126,650.0,17.0,-39.321915412973105
1127,650.0,19.0,-52.88686661444824
1128,650.0,24.0,-54.3229856022313
1129,650.0,28.0,-30.36959026241977
